{
  "model_name": "KnavePixelArtHistoryBootstrapModel",
  "model_version": "2026-03-18.knave.pixelhistory.v1",
  "feature_dim": 256,
  "epochs": 180,
  "learning_rate": 0.08,
  "training_sources": {
    "curriculum": "C:\\Users\\rrcar\\Documents\\drIpTECH\\egosphere\\pipeline\\projects\\knave_prototype\\pixel_art_history_curriculum.json",
    "corpus": "C:\\Users\\rrcar\\Documents\\drIpTECH\\egosphere\\pipeline\\projects\\knave_prototype\\knave_ml_training_corpus.jsonl"
  },
  "axis_models": {
    "animation_density": {
      "weights": [
        -0.025511490747670274,
        -0.30959609537998484,
        -0.17168037352959226,
        0.018089534044670067,
        -0.05836796008643011,
        0.03986741196606266,
        0.031066580714204147,
        0.05211258374402709,
        -0.2171506617272865,
        0.0,
        0.0,
        -0.15046217829959355,
        -0.0517265449172908,
        0.26695003764080344,
        0.3141604461976033,
        0.1081372443878324,
        0.0,
        -0.17549806107456092,
        -0.07112613899830512,
        0.11558823858808184,
        0.20296464018459956,
        0.24842784321857658,
        -0.13437347016225565,
        -0.11002388829702722,
        -0.07039706871806774,
        -0.10839574743383919,
        0.3708746781312282,
        -0.18809715133824395,
        -0.055541118004285454,
        0.0,
        0.0,
        0.0,
        0.0,
        -0.1421805347823236,
        -0.03775427225004631,
        0.0,
        0.12549050346468688,
        0.13728122501185155,
        0.007937268303164678,
        0.6097251180179684,
        0.0,
        0.05451370681771445,
        0.4244244709760099,
        0.10787168191814347,
        0.020623830440017893,
        0.12549050346468688,
        -0.32718268502974335,
        0.0,
        0.0296052404261946,
        -0.14254307529588842,
        0.0,
        0.0,
        -0.009412890216477033,
        0.1466027311881337,
        -0.07978205880549231,
        0.0,
        0.0,
        -0.27747604621346333,
        1.1544490735583854,
        0.20353548285999137,
        0.08086435442735787,
        0.009670602297416885,
        0.0,
        0.07758281744491768,
        0.0,
        0.38287394370189853,
        0.0,
        0.0,
        -0.029252970942366226,
        0.04748220407403217,
        0.0874497050317551,
        -0.13961479117804243,
        0.0,
        0.4910513395735672,
        0.0,
        -0.22437334304016257,
        -0.1131117577207208,
        0.7479326482855205,
        -0.07353242080222737,
        0.0,
        -0.3421419313782447,
        0.0,
        -0.016776756608747657,
        -0.24270820535720794,
        0.013381192862621976,
        -0.010365897760033953,
        0.0,
        -0.18502463246697,
        0.0,
        0.6449315860151283,
        0.0,
        0.0,
        -0.036175187678654415,
        0.0,
        -0.013699688429677384,
        0.3708746781312282,
        -0.15037100756185928,
        0.018740065644447607,
        0.07284899115322789,
        0.04748220407403217,
        0.14244661222209629,
        0.17162699326452585,
        0.14295117292508627,
        -0.3193733231802423,
        -0.18023920840783347,
        0.3045411411729091,
        -0.12372357672670446,
        0.05683543679947315,
        0.0,
        0.05923331483984983,
        -0.11514369843653323,
        0.0182982240308171,
        0.5987962648274401,
        -0.07353242080222737,
        0.11179081503500943,
        -0.027399376859354767,
        0.0,
        -0.036175187678654415,
        0.0,
        0.13085162782651202,
        -0.01358219734603405,
        -0.22172788778112568,
        -0.1744427372898519,
        0.0,
        0.12549050346468688,
        0.03748013128889521,
        0.08684610015849753,
        -0.0846697191131448,
        -0.23046166260666123,
        -0.05452293221151005,
        0.0,
        -0.08370778029883125,
        -0.2672354126421384,
        -0.3256941821122809,
        0.05779154859646228,
        0.0,
        -0.20983783216664337,
        0.0,
        0.2927182337049891,
        0.0,
        -0.26409359408891264,
        -0.5120349589958026,
        -0.0035944726568112513,
        -0.03953006872062642,
        0.12108529946021873,
        -0.14955395701765364,
        0.5202332141021435,
        0.0,
        -0.0683951592205627,
        -0.04109906528903214,
        -0.02346601679597056,
        0.0035035312336235648,
        0.2164185870709158,
        0.0,
        -0.1226808989546889,
        -0.15037100756185928,
        -0.004987223151441741,
        0.0,
        -0.029183980043215055,
        0.0,
        0.0,
        -0.42116409476274447,
        0.13234438552579894,
        -0.41369223440808184,
        0.0,
        0.023125114479297392,
        -0.3556707095702591,
        0.0,
        0.018740065644447607,
        0.5187071157571999,
        -0.09663762974597541,
        0.0,
        0.0,
        0.039363896084465465,
        -0.0427418459699651,
        0.020623830440017893,
        -0.7860498072551471,
        0.020311633711271142,
        -0.42894573571908595,
        0.15288692762007847,
        -0.28729852857514826,
        -0.1078032540700373,
        0.17173818331478408,
        -0.0035944726568112513,
        0.0,
        -0.11514369843653323,
        0.0,
        -0.025511490747670274,
        0.0,
        0.0,
        -0.27470781604751826,
        -0.12219131770339393,
        0.0,
        -0.08978549739151565,
        -0.023727288795889315,
        -0.02929898509887947,
        0.24946430132173264,
        0.0,
        0.0,
        0.0,
        0.0182982240308171,
        0.6207132829182986,
        0.14121304091409909,
        0.10298627700926662,
        0.6834393567025581,
        0.0,
        0.0,
        0.11665739457183356,
        -0.01842787021321536,
        0.04748220407403217,
        0.020623830440017893,
        -0.008279791577786562,
        -0.08367132582551869,
        0.018740065644447607,
        -0.10921927104650157,
        -0.036797480747993376,
        -0.029183980043215055,
        0.0,
        0.029709336367830474,
        -0.20701933482834475,
        0.006221618409542111,
        -0.03717545563056492,
        0.0904789506560293,
        -0.029183980043215055,
        -0.19612599857880753,
        0.0,
        0.02505655257735674,
        0.0,
        0.08861625732671484,
        -0.1421805347823236,
        0.13164251142042777,
        0.06578042810484921,
        0.14424872315042722,
        0.0,
        0.22179702688615843,
        0.5418318397284401,
        0.0,
        0.04748220407403217,
        0.005040377214770198,
        -0.029183980043215055,
        0.4600011789819968,
        0.0,
        -0.07112613899830512,
        0.256408979473811,
        -0.023727288795889315,
        -0.22196259358781562,
        -0.07285791679515176,
        -0.2758271326455865,
        -0.029872271227679915,
        0.0,
        -0.16787838226049007,
        -0.6846937527236329,
        -0.13234285769266116,
        0.020623830440017893,
        -0.036175187678654415,
        0.0
      ],
      "bias": 0.4760271493902827
    },
    "environment_depth": {
      "weights": [
        -0.05770578732960989,
        -0.018099834227765347,
        0.0005198306474602909,
        0.10656599427037852,
        -0.06568907373259579,
        -0.07486979805110132,
        -0.16960203178688799,
        -0.48071782463178353,
        0.23834816538582707,
        0.0,
        0.0,
        -0.1898015017710231,
        -0.003493989839730273,
        -0.22996020015302146,
        0.6099202196744671,
        0.19343892096145798,
        0.0,
        -0.03840232700950668,
        0.15393789898045113,
        0.0885912716277991,
        0.7398784657280985,
        -0.11156437736029555,
        -0.10487205476280079,
        -0.17472374975024213,
        -0.15024388321574136,
        0.03167708387583275,
        -0.12577133479871822,
        0.18399185058567294,
        -0.25042627102518134,
        0.0,
        0.0,
        0.0,
        0.0,
        -0.17716782282303184,
        0.428063848374099,
        0.0,
        0.11116320894344059,
        0.29592094090984655,
        -0.17524927701408013,
        -0.2545246867484993,
        0.0,
        0.08190457617196345,
        -0.5403422941167851,
        0.12506363803773396,
        0.0983300581524851,
        0.11116320894344059,
        0.9317194276441128,
        0.0,
        -0.09349534738709166,
        0.06282720944976786,
        0.0,
        0.0,
        -0.027209507999473134,
        0.0580803446017079,
        -0.07870853130850411,
        0.0,
        0.0,
        -0.11594421899928796,
        -0.4293785137127522,
        0.12655457026695524,
        -0.3495670369643936,
        -0.016796967633393237,
        0.0,
        0.03069292480895417,
        0.0,
        -0.19310699128655234,
        0.0,
        0.0,
        -0.21755171031657203,
        -0.004869393262342959,
        -0.09283580226234724,
        0.06351422632451692,
        0.0,
        -0.1416030497577575,
        0.0,
        -0.20166745206662118,
        -0.22143921373808756,
        -0.21263453802492155,
        0.13663732348335383,
        0.0,
        0.6056035257003165,
        0.0,
        -0.08608259393598511,
        -0.01794148329663282,
        0.24275178168920533,
        -0.1882656154788188,
        0.0,
        0.20068895440363638,
        0.0,
        -0.07238070160619739,
        0.0,
        0.0,
        -0.05091202399610769,
        0.0,
        -0.005585434149667038,
        -0.12577133479871822,
        0.23807278595402093,
        -0.04399192272552722,
        -0.09234556475330782,
        -0.004869393262342959,
        -0.014608179787028865,
        -0.05554724138477989,
        -0.2754686995223332,
        0.04450823385342417,
        0.8249473570801453,
        -0.18658042548225223,
        -0.1803091838999093,
        -0.21953312467651023,
        0.0,
        0.46757204301360694,
        0.07399807774910198,
        -0.0377139301286409,
        -0.22841654708829243,
        0.13663732348335383,
        0.10557777479377353,
        -0.011170868299334075,
        0.0,
        -0.05091202399610769,
        0.0,
        -0.1681105193499382,
        -0.04279060286972636,
        0.5950441303799489,
        -0.5543083779571988,
        0.0,
        0.11116320894344059,
        -0.08798384545105443,
        0.049468742164614915,
        -0.03808426048562882,
        0.27231484794539856,
        -0.031431056353335624,
        0.0,
        0.07953399429763326,
        -0.19296385373313765,
        -0.021456836742048173,
        -0.08046652541481678,
        0.0,
        0.37064490609788353,
        0.0,
        -0.055172684112681954,
        0.0,
        -0.27834958884582117,
        -0.15101868678584637,
        -0.08656790542368144,
        0.01669186349434384,
        -0.10569937043765759,
        -0.15803188625589823,
        -0.005189875033182397,
        0.0,
        -0.09613575834557479,
        -0.016756302449001205,
        0.05682571476261393,
        0.22930110072485946,
        0.7647411153355652,
        0.0,
        0.41554004927578697,
        0.23807278595402093,
        0.003747247569068602,
        0.0,
        -0.032844536866297895,
        0.0,
        0.0,
        0.9346954275459125,
        -0.049310784160829874,
        0.5483198064946586,
        0.0,
        -0.02748257719280648,
        -0.23314032427076187,
        0.0,
        -0.04399192272552722,
        -0.4099487268193398,
        0.09623211165084117,
        0.0,
        0.0,
        0.05433813542695789,
        -0.19910262399587397,
        0.0983300581524851,
        0.006120690208944237,
        -0.21509426831273235,
        -0.2961371012196985,
        -0.011555318659252698,
        0.18768995889679185,
        -0.20411225781122416,
        -0.22340612045008038,
        -0.08656790542368144,
        0.0,
        0.07399807774910198,
        0.0,
        -0.05770578732960989,
        0.0,
        0.0,
        -0.08341898486790598,
        0.008083087435744221,
        0.0,
        -0.19672799471385002,
        0.047739170294595824,
        0.1872334467368431,
        -0.20218946097011475,
        0.0,
        0.0,
        0.0,
        -0.0377139301286409,
        -0.2572786651823641,
        0.32431091177677085,
        0.023923453818406347,
        -0.3950507444913799,
        0.0,
        0.0,
        0.19759088275736167,
        0.09094138533007039,
        -0.004869393262342959,
        0.0983300581524851,
        0.029210712323636576,
        0.12652950208612643,
        -0.04399192272552722,
        0.0218282069680234,
        -0.02879949930326217,
        -0.032844536866297895,
        0.0,
        -0.11369434825156224,
        -0.14941469900167875,
        -0.17022547015312825,
        -0.03058638392774768,
        0.009815592492304303,
        -0.032844536866297895,
        -0.049814090630626,
        0.0,
        -0.06804933578623712,
        0.0,
        0.15906780406373422,
        -0.17716782282303184,
        -0.37667584774474716,
        -0.042583323390983814,
        0.05640627988624571,
        0.0,
        0.1894818810205834,
        -0.1543598273536213,
        0.0,
        -0.004869393262342959,
        -0.049577356875194295,
        -0.032844536866297895,
        0.551462928077014,
        0.0,
        0.15393789898045113,
        -0.06941085599802324,
        0.047739170294595824,
        -0.255876354131536,
        0.014036092694314006,
        0.5302418131334817,
        0.03767905964626554,
        0.0,
        -0.1528513184751474,
        -0.46087790254788724,
        -0.1693346858596727,
        0.0983300581524851,
        -0.05091202399610769,
        0.0
      ],
      "bias": 0.18532250567108544
    },
    "fx_legibility": {
      "weights": [
        0.006252285538504365,
        -0.23420076987775007,
        0.13506666488720767,
        0.11903088512121474,
        -0.05305786371927121,
        0.13300442109678864,
        0.0035959957852203586,
        0.376842248532345,
        0.5187056748367559,
        0.0,
        0.0,
        -0.36112386449656203,
        -0.08657545940742231,
        -0.2147436025623054,
        0.01403425888367702,
        -0.24459341478663263,
        0.0,
        -0.3937701517081348,
        -0.009391450266232138,
        0.04743670831670219,
        0.15191436317603396,
        -0.05259730456735389,
        0.36588170733720604,
        -0.26370610081570844,
        -0.1141796510822122,
        -0.12088791828189278,
        -0.2738420746960751,
        -0.12845854317877198,
        0.22700822533774825,
        0.0,
        0.0,
        0.0,
        0.0,
        -0.06796733256484332,
        0.09752449297778121,
        0.0,
        0.09689606830969212,
        0.17642767574266333,
        -0.061355780258687195,
        -0.1364930824930589,
        0.0,
        0.5858138824250688,
        -0.28849531892020386,
        0.2138719288722375,
        0.04706813260288706,
        0.09689606830969212,
        0.01168772190490699,
        0.0,
        -0.09298215215097523,
        0.0008168254465125634,
        0.0,
        0.0,
        0.14027709644761763,
        0.03810502015940883,
        -0.1101716032587731,
        0.0,
        0.0,
        -0.07075691782570705,
        0.09218670785867807,
        -0.1311633422722721,
        -0.18275411060671684,
        0.42244716602949267,
        0.0,
        0.23515806240917983,
        0.0,
        -0.09875487836705175,
        0.0,
        0.0,
        -0.03297412992983448,
        0.00018428785690756752,
        -0.1581024875705131,
        -0.17861110096280128,
        0.0,
        -0.1538988530137811,
        0.0,
        -0.0639237417208704,
        -0.5196416553538765,
        -0.1731007365284945,
        -0.10065014194129202,
        0.0,
        0.24067078150219232,
        0.0,
        -0.029235273631033433,
        0.043736310004071514,
        -0.08822300219727527,
        -0.08561831603693723,
        0.0,
        -0.23022972327284644,
        0.0,
        -0.034751912360249146,
        0.0,
        0.0,
        -0.06682179600515484,
        0.0,
        -0.03221064423726396,
        -0.2738420746960751,
        0.4678975945474908,
        -0.022125341796957656,
        -0.09627455069734331,
        0.00018428785690756752,
        0.0005528635707227164,
        -0.07518392363467631,
        0.10643669095998352,
        -0.41199461940216403,
        -0.2306402191568231,
        -0.25412756092427846,
        -0.2959167450529731,
        -0.06737255344361406,
        0.0,
        0.8468163408639129,
        0.06523811392104052,
        -0.026344644002728037,
        -0.07556775942463186,
        -0.10065014194129202,
        0.06468542407242829,
        -0.06442128847452792,
        0.0,
        -0.06682179600515484,
        0.0,
        -0.11590283357818187,
        0.2657000277048018,
        -0.06343649648748327,
        -0.3054240457340682,
        0.0,
        0.09689606830969212,
        -0.04425068359391531,
        0.025127078662836987,
        -0.05685118511738171,
        -0.08949747043617277,
        0.10342710223738456,
        0.0,
        -0.08311671865645338,
        -0.05350594175088646,
        -0.010828915953986752,
        -0.28551026567675425,
        0.0,
        -0.04242933783328568,
        0.0,
        -0.030826617936763164,
        0.0,
        0.45658021602741017,
        0.47989889749199527,
        -0.06974525977848395,
        0.0016468740048642095,
        -0.13698358520727255,
        -0.26205922681084487,
        0.21934224880981612,
        0.0,
        -0.05248729055839529,
        -0.09663193271179178,
        -0.05329139586635486,
        0.08814653408938998,
        0.11127718204484575,
        0.0,
        -0.34152817130867347,
        0.4678975945474908,
        0.6345477892756541,
        0.0,
        -0.026528931859635604,
        0.0,
        0.0,
        -0.4552246364964018,
        -0.07684730721634754,
        -0.15328189454759644,
        0.0,
        -0.15371174033429663,
        0.3262640529238679,
        0.0,
        -0.022125341796957656,
        0.053371534365641654,
        -0.0031391647277278414,
        0.0,
        0.0,
        0.024942790805929406,
        0.4785537607869465,
        0.04706813260288706,
        0.6278427315905933,
        -0.20016376402509206,
        -0.24309720909053079,
        -0.053058581837718666,
        -0.3161719519745153,
        -0.22556469051465944,
        -0.18163231374565325,
        -0.06974525977848395,
        0.0,
        0.06523811392104052,
        0.0,
        0.006252285538504365,
        0.0,
        0.0,
        -0.15510509259650548,
        0.07069735689262836,
        0.0,
        -0.2225907298124216,
        0.6566731310726123,
        -0.06324225488727285,
        -0.022093808434486814,
        0.0,
        0.0,
        0.0,
        -0.026344644002728037,
        -0.15156530474162017,
        0.3808242306227997,
        0.5438277541512897,
        1.1275087927562921,
        0.0,
        0.0,
        0.1293595431397762,
        0.2644430564980548,
        0.00018428785690756752,
        0.04706813260288706,
        0.21344519961571645,
        -0.051724254223525175,
        -0.022125341796957656,
        -0.0768644331179491,
        -0.09390711892485462,
        -0.026528931859635604,
        0.0,
        0.5176352685742361,
        0.13660309460229836,
        -0.11251474541830435,
        0.06226151338862093,
        0.280665521443369,
        -0.026528931859635604,
        0.1565977043463527,
        0.0,
        0.03808400088785814,
        0.0,
        -0.5527487368262427,
        -0.06796733256484332,
        0.2955606998811513,
        -0.026160356145820463,
        -0.0442125589624713,
        0.0,
        0.16726320475974857,
        -0.28360052481033393,
        0.0,
        0.00018428785690756752,
        -0.05433598603422158,
        -0.026528931859635604,
        -0.00428128992287785,
        0.0,
        -0.009391450266232138,
        0.05975058518302132,
        0.6566731310726123,
        -0.1781389358236164,
        -0.0953141148931499,
        -0.19213661577605026,
        -0.17824045115158915,
        0.0,
        -0.11636579397914984,
        -0.3577543550848271,
        -0.2685111259588214,
        0.04706813260288706,
        -0.06682179600515484,
        0.0
      ],
      "bias": 0.24398191052006207
    },
    "material_storytelling": {
      "weights": [
        0.004890592154397097,
        0.8357841820368075,
        0.7879997032957661,
        0.11223269860849182,
        0.03498156139459514,
        -0.12074300489256735,
        -0.13507771799327942,
        0.11267339055759469,
        -0.05941843609183765,
        0.0,
        0.0,
        0.14517083189217453,
        -0.09841679509575499,
        0.19597465727478747,
        0.44358128819070186,
        0.05134525862092937,
        0.0,
        -0.5956614267087821,
        -0.13698959393472618,
        -0.05179797101804699,
        -0.16159180036158072,
        -0.13713706061824227,
        0.15550379461120223,
        0.129062567851172,
        -0.18605820615300953,
        0.11964635162443019,
        0.03777029152148695,
        0.16446407033810698,
        -0.2088559763093198,
        0.0,
        0.0,
        0.0,
        0.0,
        0.7962896176105106,
        0.22511985288732095,
        0.0,
        0.09511685553324645,
        -0.22706531005656116,
        -0.06923270185193306,
        -0.0800402558037423,
        0.0,
        0.23803233074531652,
        0.9149009108311483,
        -0.2574229432509147,
        -0.04509128580785232,
        0.09511685553324645,
        -0.43742580125490055,
        0.0,
        -0.015878659156848343,
        0.3390743135871293,
        0.0,
        0.0,
        -0.15849545258723652,
        0.23232213017181627,
        0.003570944879518055,
        0.0,
        0.0,
        0.1994285514244758,
        0.011816930703202737,
        -0.008123536238868061,
        0.5354498185226113,
        0.011299334311114614,
        0.0,
        -0.09712816574205108,
        0.0,
        0.05998546129994177,
        0.0,
        0.0,
        0.16065751435734338,
        -0.0033533426050973113,
        -0.014072657470122471,
        0.07052201850278936,
        0.0,
        -0.1744238253986975,
        0.0,
        1.3055625899756749,
        0.409900612846524,
        -0.14590082143308922,
        0.12489276932941014,
        0.0,
        -0.08983535577906522,
        0.0,
        0.2633554816250057,
        0.24217524046562688,
        0.5160329344516611,
        -0.34948773756478024,
        0.0,
        0.12473017329988867,
        0.0,
        -0.20358220441476998,
        0.0,
        0.0,
        -0.026662754643951368,
        0.0,
        0.05794169570613898,
        0.03777029152148695,
        0.11040411447932164,
        -0.19683407362964353,
        -0.14300111965480672,
        -0.0033533426050973113,
        -0.010060027815291951,
        -0.167747800760189,
        0.42769712057906856,
        0.4217848472877294,
        0.024261023684524697,
        0.19459453339900704,
        0.18700426355731115,
        -0.11853690673517109,
        0.0,
        0.474592828448569,
        0.22319092217485095,
        0.01413743809220025,
        -0.1536003264525207,
        0.12489276932941014,
        0.1530585512393853,
        0.11588339141227796,
        0.0,
        -0.026662754643951368,
        0.0,
        0.03957826582865005,
        -0.12587147573954505,
        -0.1314293359169886,
        0.0638465488204628,
        0.0,
        0.09511685553324645,
        -0.39366814725928706,
        -0.245278702042593,
        -0.03662974877393721,
        0.15551700479798616,
        0.1788972382860741,
        0.0,
        0.019747282213148407,
        0.20267382545755558,
        -0.22689035557021053,
        -0.029752914603485333,
        0.0,
        0.11042571899013434,
        0.0,
        0.06946492156602486,
        0.0,
        0.7725731752992449,
        -0.03981302123431776,
        -0.1575442560895341,
        0.029037561687572395,
        -0.19310881414335104,
        0.1581001295387443,
        0.010746747094566423,
        0.0,
        0.08032306855783372,
        0.17382508711841713,
        -0.17474538426586236,
        -0.100292296028962,
        0.030570178029021837,
        0.0,
        0.22960799373612287,
        0.11040411447932164,
        -0.22907287898202458,
        0.0,
        0.01749078069729757,
        0.0,
        0.0,
        0.008639826173369967,
        0.04270611653028277,
        -0.015051500352000903,
        0.0,
        0.0673439908978284,
        0.2374050868284708,
        0.0,
        -0.19683407362964353,
        -0.18923144746027548,
        -0.132099001780329,
        0.0,
        0.0,
        -0.2419253594374957,
        -0.0658393260572806,
        -0.04509128580785232,
        0.3484704734084076,
        -0.0014006293844302255,
        -0.2339223040334606,
        0.029086272869454692,
        0.0325790919954939,
        0.5783632763476574,
        -0.240789374955811,
        -0.1575442560895341,
        0.0,
        0.22319092217485095,
        0.0,
        0.004890592154397097,
        0.0,
        0.0,
        0.23033281193388735,
        0.12972462859384126,
        0.0,
        -0.27682233756149727,
        -0.03223880535238102,
        -0.6980612399160042,
        0.26277279531266406,
        0.0,
        0.0,
        0.0,
        0.01413743809220025,
        -0.31603517469645087,
        -0.161226497172022,
        0.22628714500317862,
        -0.04162911334435447,
        0.0,
        0.0,
        -0.18197402424870898,
        -0.5406423034811229,
        -0.0033533426050973113,
        -0.04509128580785232,
        -0.030392509040249295,
        -0.04312771355980761,
        -0.19683407362964353,
        0.024637874367545488,
        0.03201727746845972,
        0.01749078069729757,
        0.0,
        -0.05305652366237023,
        0.1361933241115331,
        -0.3411517677403234,
        0.048826315547113044,
        0.17424732100519666,
        0.01749078069729757,
        0.02950436187618773,
        0.0,
        0.2763689662974658,
        0.0,
        -0.07208629798256992,
        0.7962896176105106,
        -0.08068811856608323,
        0.010784095487102928,
        -0.03250118863402336,
        0.0,
        0.2077244917637906,
        -0.06166922666531131,
        0.0,
        -0.0033533426050973113,
        -0.13889237792350456,
        0.01749078069729757,
        -0.36702881780021823,
        0.0,
        -0.13698959393472618,
        0.05501972402031614,
        -0.03223880535238102,
        0.799860562490029,
        0.016421354777804736,
        -0.45878784335136813,
        -0.11958601239221717,
        0.0,
        0.1026457170247433,
        -0.4190721796039881,
        0.04608883547807229,
        -0.04509128580785232,
        -0.026662754643951368,
        0.0
      ],
      "bias": 0.10155299057543042
    },
    "silhouette_readability": {
      "weights": [
        0.17187165105942057,
        0.45027581675221834,
        -0.10921016822656056,
        -0.14073297354473305,
        0.2043387892155709,
        0.12731297987186094,
        0.021905974012354494,
        -0.08918472352883779,
        -0.08905475916511761,
        0.0,
        0.0,
        -0.38044239334135443,
        -0.3527498205255669,
        0.29538367778171964,
        0.11616876682704812,
        0.35415864937281755,
        0.0,
        0.4290609389008438,
        -0.04668502292490486,
        0.028350972219266957,
        -0.12143748756370996,
        -0.13233911347230462,
        0.2101040999908673,
        0.6051923448382109,
        -0.04548794076015584,
        -0.017163238864747993,
        -0.013603588202994664,
        -0.18028399383323995,
        -0.15012859785172844,
        0.0,
        0.0,
        0.0,
        0.0,
        0.044479322995200334,
        -0.1808700906339074,
        0.0,
        0.03088409307917508,
        -0.1747404904340967,
        -0.4350941360571854,
        -0.008052194934907065,
        0.0,
        0.27066087472155975,
        -0.5778476863097067,
        -0.2116910531250763,
        -0.04714876812885828,
        0.03088409307917508,
        -0.2850248879909647,
        0.0,
        0.02486860875755649,
        -0.09932415889978748,
        0.0,
        0.0,
        0.19780682637073457,
        0.042163369681213266,
        0.033285288166820366,
        0.0,
        0.0,
        -0.09009569372040455,
        0.8213619073420632,
        -0.07826089090403068,
        0.14062383138905907,
        0.05618974970605395,
        0.0,
        0.16420931850340517,
        0.0,
        -0.12528021380993473,
        0.0,
        0.0,
        -0.08251864463487055,
        0.03774987017406263,
        -0.15733505559935262,
        0.16111648324979325,
        0.0,
        -0.08773306344215247,
        0.0,
        0.08938713796283854,
        0.6038573428464707,
        -0.17247240452635504,
        0.04313560387446954,
        0.0,
        -0.0787572009472754,
        0.0,
        0.4907151472723141,
        -0.12349005760587109,
        0.1077331298546512,
        0.34385296849330765,
        0.0,
        0.20503125857537652,
        0.0,
        -0.21508664325421525,
        0.0,
        0.0,
        -0.15280052619835438,
        0.0,
        -0.08469559120850338,
        -0.013603588202994664,
        -0.31962216927870796,
        0.09472602823015426,
        0.04984519670695182,
        0.03774987017406263,
        0.1132496105221879,
        0.03990584323659267,
        -0.3346554328092129,
        0.5990935245292361,
        0.019755954063668143,
        0.006845387985768343,
        0.5204967536297093,
        -0.18652342353732054,
        0.0,
        0.03258341416402225,
        0.07006702351721908,
        0.13991926478184813,
        0.003933775934064007,
        0.04313560387446954,
        -0.05381149812932815,
        -0.16939118241700676,
        0.0,
        -0.15280052619835438,
        0.0,
        0.08431418886610283,
        -0.5633698228664012,
        -0.4332216579207463,
        0.7914784450588578,
        0.0,
        0.03088409307917508,
        0.18945205646030852,
        0.08532713027535865,
        0.15800817109738277,
        -0.0173780969110125,
        0.07661020456855623,
        0.0,
        0.20289824687850852,
        0.7180899860320921,
        -0.060810611248448714,
        0.17523335487402789,
        0.0,
        -0.06452686503987089,
        0.0,
        0.2539408639772266,
        0.0,
        0.21210161361860852,
        -0.0931047043678121,
        0.07725528920373265,
        -0.04261845511484574,
        0.07653722895309839,
        0.5625738897233656,
        -0.20650390687891243,
        0.0,
        0.18934545445870274,
        -0.2540867736255098,
        -0.0924725511215076,
        0.06289248482899606,
        -0.29050704650689313,
        0.0,
        0.03669913210916565,
        -0.31962216927870796,
        -0.21159592703595323,
        0.0,
        0.10216939460778544,
        0.0,
        0.0,
        -0.027675391298003976,
        0.012292428630856628,
        -0.27144231492016285,
        0.0,
        0.38706232656878614,
        0.3200928186454778,
        0.0,
        0.09472602823015426,
        0.5345708605593639,
        0.1251866281345157,
        0.0,
        0.0,
        0.04757726010129601,
        -0.3658259336673164,
        -0.04714876812885828,
        0.3330397891075142,
        -0.07807726715447216,
        0.037033590487961,
        -0.05482018499356164,
        0.4558942144371731,
        0.08032742892629818,
        0.2791819636601244,
        0.07725528920373265,
        0.0,
        0.07006702351721908,
        0.0,
        0.17187165105942057,
        0.0,
        0.0,
        0.13663759985085946,
        0.01310247491416492,
        0.0,
        -0.3636755503649065,
        -0.30632195526610784,
        -0.023330879739012957,
        0.1889613263816787,
        0.0,
        0.0,
        0.0,
        0.13991926478184813,
        -0.09068258592162376,
        -0.16730125488081415,
        -0.019218110412621833,
        -0.7566263828761615,
        0.0,
        0.0,
        -0.12759172230523844,
        -0.36935393673594136,
        0.03774987017406263,
        -0.04714876812885828,
        -0.165739592021495,
        -0.03210391911649795,
        0.09472602823015426,
        0.37476989793792903,
        -0.24156681577959116,
        0.10216939460778544,
        0.0,
        -0.21253466309262325,
        0.2622158039305245,
        0.4191527261198757,
        0.0741383420713991,
        0.2653999920147682,
        0.10216939460778544,
        -0.22816770141473583,
        0.0,
        -0.03595065978951001,
        0.0,
        -0.24139562504646125,
        0.044479322995200334,
        -0.36150016047581307,
        0.1776691349559108,
        -0.05168329752985645,
        0.0,
        0.16393758076613574,
        0.2582613422466346,
        0.0,
        0.03774987017406263,
        0.010030437021650978,
        0.10216939460778544,
        -0.4067414853953691,
        0.0,
        -0.04668502292490486,
        -0.14115473475978155,
        -0.30632195526610784,
        0.07776461116202088,
        -0.09855907117054132,
        0.16575398314481796,
        -0.3109749008127736,
        0.0,
        -0.09565636425423824,
        0.1833543355127603,
        0.22682909868001597,
        -0.04714876812885828,
        -0.15280052619835438,
        0.0
      ],
      "bias": 0.5719456608981147
    },
    "ui_authorship": {
      "weights": [
        0.13020906361744367,
        -0.08962917824275168,
        -0.12954180789743946,
        0.22359075220859087,
        0.01152811829959828,
        -0.11157791646869329,
        0.026246279527551097,
        0.3332852279850844,
        -0.11173399932744671,
        0.0,
        0.0,
        -0.18933306362872596,
        -0.28603871999139274,
        -0.3484379477512174,
        0.08296105898246729,
        -0.07818642526487132,
        0.0,
        -0.20928189666353733,
        -0.0876086918193579,
        0.14338683147089237,
        0.29220009812137243,
        -0.22064856803893151,
        -0.08865894951664932,
        0.020714368661563533,
        -0.006338025388350571,
        0.29585043057619753,
        -0.04913026735192718,
        0.481659978868244,
        0.24791579232570085,
        0.0,
        0.0,
        0.0,
        0.0,
        -0.05901514928187472,
        -0.3292987082844217,
        0.0,
        0.05508589357816372,
        -0.043159774790958054,
        -0.09002533017822587,
        0.017125460531964787,
        0.0,
        0.5461120648120412,
        -0.3386349569794164,
        0.025235342244588347,
        0.012322127356420796,
        0.05508589357816372,
        -0.2585537595137269,
        0.0,
        -0.012351660409635888,
        0.05510467228145004,
        0.0,
        0.0,
        0.037942545216819376,
        0.07556501319962206,
        0.12395213374117237,
        0.0,
        0.0,
        -0.1608719018503267,
        -0.26221629141828506,
        0.07307743511454833,
        -0.05807032702197434,
        -0.03549393894287098,
        0.0,
        -0.11401743985955014,
        0.0,
        -0.013713318786610716,
        0.0,
        0.0,
        0.24662599445939326,
        0.06553235205723584,
        -0.16555717945788234,
        0.3725813499971089,
        0.0,
        0.5052115099859653,
        0.0,
        -0.168336128336782,
        0.5767878848776142,
        -0.2601108023721736,
        0.19632644957224699,
        0.0,
        -0.09965156272636294,
        0.0,
        -0.40481824679792777,
        0.6636469462157747,
        0.350023455838097,
        0.003702697971752423,
        0.0,
        0.3538420679877657,
        0.0,
        -0.23141191923177795,
        0.0,
        0.0,
        -0.14918042367390644,
        0.0,
        -0.05230276668368935,
        -0.04913026735192718,
        -0.24854635791595742,
        -0.07495008448587433,
        -0.14943307504997963,
        0.06553235205723584,
        0.1965970561717076,
        -0.27070367226619935,
        -0.028919372395518124,
        0.10094770637474762,
        0.4974262738410276,
        -0.1196471421598014,
        -0.03158839802212571,
        -0.19851658032620695,
        0.0,
        0.14103991652889764,
        0.15971020564882854,
        0.07129641120703496,
        -0.11352498297075493,
        0.19632644957224699,
        0.002783126894474384,
        -0.1046055333673787,
        0.0,
        -0.14918042367390644,
        0.0,
        0.15537896809250404,
        0.2135309087804801,
        -0.17405557358679768,
        -0.0766744856134868,
        0.0,
        0.05508589357816372,
        -0.14990016897174865,
        0.002904394927782277,
        0.26648332471503694,
        0.05975421809172569,
        0.06783939726691615,
        0.0,
        -0.015307014480438617,
        0.004399181810211415,
        0.24331081029459997,
        0.4176724294696026,
        0.0,
        0.07207634544814653,
        0.0,
        -0.06492959544913394,
        0.0,
        -0.1130959530122564,
        0.08777585105605279,
        -0.051556281159816954,
        -0.2714164500548729,
        0.12844035420877245,
        -0.25070208139330885,
        0.26115373970389344,
        0.0,
        0.0836703560835535,
        -0.1569083000510684,
        -0.0792413805674211,
        0.048494500368860716,
        -0.39586238115987576,
        0.0,
        0.01349693873521117,
        -0.24854635791595742,
        -0.24278462862620712,
        0.0,
        0.00576405914979914,
        0.0,
        0.0,
        0.14197872571703346,
        -0.022007724958786393,
        0.483149167918116,
        0.0,
        0.09289432417821862,
        -0.05727462841554591,
        0.0,
        -0.07495008448587433,
        -0.2721751155326575,
        0.042600371798085804,
        0.0,
        0.0,
        -0.06262795712945358,
        0.5438503328939203,
        0.012322127356420796,
        -0.2882592092491654,
        0.09019283613194329,
        1.1987688905532043,
        -0.1957535877803252,
        -0.19510146711522208,
        0.005653928742639212,
        0.008440360634615071,
        -0.051556281159816954,
        0.0,
        0.15971020564882854,
        0.0,
        0.13020906361744367,
        0.0,
        0.0,
        0.4076144731311736,
        -0.1236234343560769,
        0.0,
        -0.5224913555075947,
        -0.1678345441403334,
        -0.08081584165119507,
        -0.10587880276330296,
        0.0,
        0.0,
        0.0,
        0.07129641120703496,
        -0.29529032774801567,
        -0.37459786015470725,
        -0.28467043929400815,
        -0.4696561017848234,
        0.0,
        0.0,
        -0.05548190214737887,
        -0.27278764976974995,
        0.06553235205723584,
        0.012322127356420796,
        -0.10568136725143816,
        0.5978585379831863,
        -0.07495008448587433,
        0.11490204913700508,
        -0.09071919771178648,
        0.00576405914979914,
        0.0,
        -0.11136751476424804,
        -0.022873255057973794,
        0.1107150398612657,
        0.8724265671878729,
        0.34306580465816117,
        0.00576405914979914,
        -0.26219701532728906,
        0.0,
        -0.4725574832597477,
        0.0,
        -0.2690526960704497,
        -0.05901514928187472,
        -0.06934960074491703,
        0.1368287632642707,
        -0.004054628427554923,
        0.0,
        0.11593584630612656,
        -0.25067818989748325,
        0.0,
        0.06553235205723584,
        -0.12725285116956372,
        0.00576405914979914,
        -0.3147482951067888,
        0.0,
        -0.0876086918193579,
        -0.149696817169011,
        -0.1678345441403334,
        0.0649369844592975,
        0.08397149441390395,
        -0.20175595267508362,
        -0.3118664522622705,
        0.0,
        -0.12489809402359457,
        0.40455194605462025,
        0.3162876328613242,
        0.012322127356420796,
        -0.14918042367390644,
        0.0
      ],
      "bias": 0.19269322552943802
    }
  },
  "godai_models": {
    "mercy": {
      "weights": [
        0.0035041602588739037,
        -0.022354130693819405,
        -0.013129277067420847,
        0.035728542777125234,
        0.033970687567439824,
        -0.004927922108109429,
        0.028777689723095225,
        0.01284740599831264,
        0.02375466491744076,
        0.0,
        0.0,
        0.10916126186965551,
        0.05811637817233789,
        0.04261457567388374,
        0.05155515234201767,
        0.04223908873777527,
        0.0,
        0.059483326160550444,
        0.008569448894409243,
        0.04564442570905771,
        -0.04581077405587669,
        0.012455348593092497,
        -0.024536402242310122,
        -0.0074095004828473665,
        0.02859212153688488,
        -0.01125128882747788,
        0.0002576868657647061,
        0.07931160838246161,
        0.04207700878639821,
        0.0,
        0.0,
        0.0,
        0.0,
        -0.02949519202683532,
        0.0952178351083907,
        0.0,
        0.002160016218381595,
        0.014914310456077854,
        0.041180332245556374,
        0.028008562458837847,
        0.0,
        -0.07178996092488216,
        0.012156823359471427,
        0.0008033769176812275,
        0.022474821872622765,
        0.002160016218381595,
        0.00581432909122882,
        0.0,
        0.057975725770012566,
        0.024568815884069284,
        0.0,
        0.0,
        0.031344347131205076,
        0.00020952573992872475,
        0.004310949273342289,
        0.0,
        0.0,
        0.018873991691784588,
        -0.04077278602404196,
        -0.010110674233258765,
        0.0005950435037048251,
        -0.013597087638508497,
        0.0,
        0.057959278914102456,
        0.0,
        -0.0064639314433895265,
        0.0,
        0.0,
        -0.018418539910037033,
        0.011584801918217456,
        0.017906673771779163,
        -0.021024323522170783,
        0.0,
        0.020395778465975373,
        0.0,
        0.008323551558896785,
        -0.029939139062014564,
        0.010675433965296018,
        0.005609902850456946,
        0.0,
        0.003179382091064404,
        0.0,
        0.013890041771273228,
        0.02098584125963341,
        0.08530143772711356,
        0.03750606117642792,
        0.0,
        -0.01586442365744868,
        0.0,
        0.03306436021599724,
        0.0,
        0.0,
        0.017820778149857594,
        0.0,
        0.030945175645970033,
        0.0002576868657647061,
        -0.018326720739624887,
        0.02236429186732199,
        0.013850710387318638,
        0.011584801918217456,
        0.034754405754652426,
        0.02679049454149525,
        0.011798385018940835,
        -0.021693497136754156,
        -0.03152259707792211,
        0.0061290276316183214,
        0.023535675163122664,
        0.03198232936195803,
        0.0,
        0.09652431881026968,
        -0.0373215354078707,
        0.02857014570193737,
        0.014093698602248364,
        0.005609902850456946,
        0.03310519186435164,
        0.061890351291940066,
        0.0,
        0.017820778149857594,
        0.0,
        -0.007281670986250012,
        0.021939786704310977,
        0.004215574169169724,
        0.0175230274641136,
        0.0,
        0.002160016218381595,
        0.04472858373464398,
        0.0564239156581622,
        0.030289931404838964,
        -0.012333506175454013,
        -0.004555237132787272,
        0.0,
        0.0035705306665079727,
        0.007094450305806732,
        0.12378982877548585,
        -0.02978414845588529,
        0.0,
        0.01014131569716877,
        0.0,
        0.030504180540297885,
        0.0,
        -0.020912248779198304,
        -0.0013148408458971866,
        0.011637609050232013,
        0.017884279044222882,
        0.009075678511596689,
        0.010474778561375546,
        0.09228711631450837,
        0.0,
        0.05143467968856379,
        0.09283552693790997,
        0.04730252514381671,
        0.10139515318530799,
        0.0005807676994323887,
        0.0,
        -0.003657323649916544,
        -0.018326720739624887,
        0.007518025390957363,
        0.0,
        0.016985343783719912,
        0.0,
        0.0,
        -0.016952330388612078,
        -5.410097743662087e-05,
        0.026312398926111032,
        0.0,
        0.0070205899479452594,
        -0.01594174216793741,
        0.0,
        0.02236429186732199,
        0.033093498801504855,
        0.012073609153283147,
        0.0,
        0.0,
        0.04483911373994474,
        0.01020051919847804,
        0.022474821872622765,
        0.03370687697126891,
        0.028992488942157064,
        4.2191014926877866e-05,
        0.004426202674173248,
        0.028532370149381567,
        0.0049710099996577335,
        0.052368763919089276,
        0.011637609050232013,
        0.0,
        -0.0373215354078707,
        0.0,
        0.0035041602588739037,
        0.0,
        0.0,
        -0.028699636861186165,
        0.058806956300201496,
        0.0,
        0.07582662631689463,
        -0.014846266476364594,
        0.04907204849354008,
        0.013745192528926014,
        0.0,
        0.0,
        0.0,
        0.02857014570193737,
        0.022227147393606417,
        0.01623305834195934,
        0.01219375781691574,
        0.026075616649338447,
        0.0,
        0.0,
        -0.0075605114165448895,
        0.05769198144015433,
        0.011584801918217456,
        0.022474821872622765,
        -0.0005357167390409763,
        0.022909361414092777,
        0.02236429186732199,
        0.0070746909253818786,
        0.015540142866759385,
        0.016985343783719912,
        0.0,
        0.012087263123879055,
        0.009014472699751195,
        0.07782434593389813,
        -0.0021446771974141837,
        -0.022494303161380617,
        0.016985343783719912,
        0.006868664195327735,
        0.0,
        0.036062295024684374,
        0.0,
        0.04065666168630193,
        -0.02949519202683532,
        0.021289621537134866,
        0.04015494762015484,
        0.022560717494544323,
        0.0,
        0.021305376220483112,
        0.07907485725174326,
        0.0,
        0.011584801918217456,
        0.05330946751329201,
        0.016985343783719912,
        0.021739791518407534,
        0.0,
        0.008569448894409243,
        -0.0006439186939142179,
        -0.014846266476364594,
        -0.025184242753493045,
        0.057730946791934974,
        0.015521180069382324,
        0.03596918415174342,
        0.0,
        0.058561444618629846,
        0.11010733774959322,
        -0.006249449371942653,
        0.022474821872622765,
        0.017820778149857594,
        0.0
      ],
      "bias": 0.8496422348797046
    },
    "novelty": {
      "weights": [
        -0.0011999512333213831,
        0.03745083666199006,
        0.026831348662029457,
        0.05889463017170511,
        0.0335485295059214,
        -0.0008488375480610535,
        0.00227701699559214,
        0.010236770175401831,
        0.05030240081159002,
        0.0,
        0.0,
        0.026076933137005792,
        0.01231708208559645,
        -0.006642854570251275,
        0.1888741646170596,
        0.08622013471391617,
        0.0,
        0.00028502508428826116,
        -0.006357188907611565,
        0.053767348649572326,
        0.05355435460095327,
        -0.00515962223170709,
        0.008966623549572948,
        0.014079459985669361,
        -0.0022981937177834846,
        0.014252914885495682,
        0.0006790593507271149,
        0.07001691581983345,
        0.02384846405379582,
        0.0,
        0.0,
        0.0,
        0.0,
        0.01816844166508042,
        0.06916395734191311,
        0.0,
        0.025664588173651928,
        0.011512203583541407,
        0.002621430834316151,
        0.030610926077582725,
        0.0,
        0.06064868102579885,
        0.000265628841337202,
        0.004851381017962746,
        0.009018888999190355,
        0.025664588173651928,
        -0.012206046600261089,
        0.0,
        0.06317182094654551,
        0.036970398702535844,
        0.0,
        0.0,
        0.01552370686204827,
        0.03087812846321233,
        -0.0034171813119586916,
        0.0,
        0.0,
        -0.013986945495513006,
        0.08117337985308486,
        0.014404894784151974,
        0.02573943943014982,
        0.008874254758104034,
        0.0,
        0.05596977130801788,
        0.0,
        0.011234820865416188,
        0.0,
        0.0,
        0.02197066352111309,
        0.022374229825190998,
        0.0018754496601121025,
        0.007209839045739496,
        0.0,
        0.050720172812263785,
        0.0,
        0.04908007160096161,
        0.03874846906595746,
        0.008638202158846956,
        0.02389179089364764,
        0.0,
        0.010470881128324578,
        0.0,
        0.043406492706160614,
        0.042816547207038855,
        0.13046792449809033,
        -0.015366341144363185,
        0.0,
        0.039677402011559955,
        0.0,
        0.017430738041128227,
        0.0,
        0.0,
        0.0016490965432030711,
        0.0,
        0.013264770535949483,
        0.0006790593507271149,
        -0.0010679460067240488,
        -0.005294589727579966,
        -0.009960026921175077,
        0.022374229825190998,
        0.06712268947557291,
        -0.007471043203006459,
        0.012601460269475218,
        0.023665205813452342,
        0.03500090798520365,
        0.0031139619947493646,
        0.02734423052161878,
        -0.00848364023602552,
        0.0,
        0.23105670487545585,
        0.010440857630636973,
        0.03914849457815171,
        0.007211897808616548,
        0.02389179089364764,
        0.03892935870960141,
        0.026529541071898966,
        0.0,
        0.0016490965432030711,
        0.0,
        0.007522642913661445,
        0.017516649224424086,
        -0.015031699100727035,
        0.018900270629125936,
        0.0,
        0.025664588173651928,
        -0.010589179455159931,
        0.026098529096801392,
        0.00440175645391028,
        0.004372205538222553,
        0.003657607053997667,
        0.0,
        0.009641197498454834,
        0.024042009899031807,
        0.13777875799268494,
        0.02208732979067607,
        0.0,
        0.013391094537412928,
        0.0,
        0.022207134026884453,
        0.0,
        0.05570114750634743,
        -0.003588781506519744,
        -0.008871800183461842,
        -0.006009614631764441,
        0.002374799098800065,
        0.008069845353904927,
        0.10590378476469668,
        0.0,
        0.028839084055588757,
        0.03979431160784845,
        0.008116926721088104,
        0.06060519650349246,
        0.036489342437137695,
        0.0,
        0.024796256348192602,
        -0.0010679460067240488,
        0.006781700695215808,
        0.0,
        0.0167742647529607,
        0.0,
        0.0,
        0.00716529968158883,
        0.0025920923866401217,
        0.037953077232805575,
        0.0,
        0.011033338651773581,
        0.0018873218283443122,
        0.0,
        -0.005294589727579966,
        0.03449326282398772,
        -0.007557140140932955,
        0.0,
        0.0,
        0.003724299271610409,
        0.07433921038257707,
        0.009018888999190355,
        0.043031029915637,
        -0.017733874782915916,
        0.02054298314112393,
        -0.0021764534754264916,
        0.03057268903856749,
        0.03088941962573801,
        0.023701359325783513,
        -0.008871800183461842,
        0.0,
        0.010440857630636973,
        0.0,
        -0.0011999512333213831,
        0.0,
        0.0,
        0.0036064950067196053,
        0.046457318039629485,
        0.0,
        -0.00034730009797083537,
        0.012076290422795764,
        -0.015443531444584142,
        0.03965499686397974,
        0.0,
        0.0,
        0.0,
        0.03914849457815171,
        -0.00045995114152393103,
        0.01352555158717776,
        0.050598428978101295,
        0.047465399373371124,
        0.0,
        0.0,
        0.0024933145843510462,
        0.0067973087512054504,
        0.022374229825190998,
        0.009018888999190355,
        0.002051243356024604,
        0.02786475620661208,
        -0.005294589727579966,
        0.008441246265133439,
        -0.015540030315689107,
        0.0167742647529607,
        0.0,
        0.027856661941850998,
        0.01771792566713285,
        0.02922383197709698,
        0.0613120893783992,
        0.03383489904232472,
        0.0167742647529607,
        -0.0031230533207357762,
        0.0,
        0.017772494506581703,
        0.0,
        0.00046613518044354,
        0.01816844166508042,
        0.004432295555908479,
        0.061522724403342686,
        0.00924524211609939,
        0.0,
        0.06810344110026463,
        0.05379385756193746,
        0.0,
        0.022374229825190998,
        0.007970180808369517,
        0.0167742647529607,
        0.017939069256090217,
        0.0,
        -0.006357188907611565,
        0.007235428129304859,
        0.012076290422795764,
        0.014751260353121833,
        0.01886647822318115,
        -0.007594071653506815,
        0.00681685963352598,
        0.0,
        0.009051600680660118,
        0.0053842088450539735,
        -0.0014617416039513552,
        0.009018888999190355,
        0.0016490965432030711,
        0.0
      ],
      "bias": 0.764865499127645
    },
    "pressure": {
      "weights": [
        0.04906672770474102,
        0.024280120422625583,
        0.026214653134468184,
        0.041988732481299904,
        0.03567940567807405,
        -0.004843850014611096,
        0.011108213671534119,
        0.0725405442923653,
        0.036338538796708224,
        0.0,
        0.0,
        -0.0029715818112839507,
        -0.03247825650842271,
        0.07511786524112601,
        0.14586086441135188,
        0.015450568253906546,
        0.0,
        -0.023344768842478887,
        -0.006216879730818997,
        0.06428266884665437,
        0.028873648252139235,
        -0.03330546141300152,
        0.011873539988189935,
        0.012947846388740311,
        -0.023636838809213027,
        0.011543578270285538,
        -0.00038931380780746026,
        0.046044897980277125,
        0.026733301348335084,
        0.0,
        0.0,
        0.0,
        0.0,
        0.0006964732168656313,
        0.05472670347852256,
        0.0,
        0.031502770057712896,
        0.023840001229629943,
        -0.04189497637854158,
        0.015594191321602224,
        0.0,
        0.07918661414447396,
        -0.02051762742229022,
        -0.0012098252322732819,
        0.028014359298335886,
        0.031502770057712896,
        -0.020421350288925527,
        0.0,
        0.02386170448397615,
        0.012868948566640294,
        0.0,
        0.0,
        0.06911140324585303,
        0.03523975074512824,
        -0.0034079954431205637,
        0.0,
        0.0,
        -0.0272152563948604,
        0.08682373830970105,
        0.0005567468404737254,
        0.004272964181942941,
        0.042152708312629995,
        0.0,
        0.05536099428157541,
        0.0,
        -0.012972350726988385,
        0.0,
        0.0,
        -0.008915261502678887,
        0.01813415477415924,
        -0.030376079172648486,
        0.014574955674488244,
        0.0,
        0.046413233345003316,
        0.0,
        0.06182836517808964,
        0.027380222600940373,
        -0.019607309454162218,
        0.018321867849602807,
        0.0,
        0.022586446249451688,
        0.0,
        0.012243649674760175,
        0.06867074064187295,
        0.1211688059389531,
        0.039315715628029435,
        0.0,
        0.02355929717087533,
        0.0,
        0.008536821113442785,
        0.0,
        0.0,
        -0.03024630790337935,
        0.0,
        0.0003389167319940077,
        -0.00038931380780746026,
        -0.00748853814219976,
        0.004406700147686114,
        -0.017656978383345494,
        0.01813415477415924,
        0.05440246432247776,
        -0.002591832170209479,
        0.0012465198757831324,
        0.019088474048393114,
        0.0523867232368729,
        -0.009538300143775442,
        0.01328676312073433,
        -0.020389216435493622,
        0.0,
        0.24261948925136684,
        0.012191115102652314,
        0.0359738576131962,
        0.029589189519847917,
        0.018321867849602807,
        0.031841686789706905,
        0.0006778334639880154,
        0.0,
        -0.03024630790337935,
        0.0,
        0.006175398461615422,
        -0.004885970870635634,
        -0.032862539194805654,
        -0.004156685126934156,
        0.0,
        0.031502770057712896,
        0.008813400295372227,
        0.050555214220181235,
        0.07367309155995645,
        0.00240364697223744,
        0.0503075290114231,
        0.0,
        0.011791823602879989,
        0.043521883465479604,
        0.056123737867625784,
        -0.02329186774982883,
        0.0,
        0.03041800627057331,
        0.0,
        0.08171464627965995,
        0.0,
        0.038177545803962896,
        -0.02032685421818904,
        -0.0141577122243977,
        -0.011274521078100338,
        0.004159962685668803,
        0.0016733253106399782,
        0.11806785830225316,
        0.0,
        0.06724534727577203,
        0.0010167501959820148,
        -0.001676519043952605,
        0.11972248357308159,
        0.0694719786847657,
        0.0,
        0.007672246681030078,
        -0.00748853814219976,
        -0.0020389657887255235,
        0.0,
        0.017839702839037026,
        0.0,
        0.0,
        0.002270569429087367,
        -0.00015551600405176806,
        0.012432500094101639,
        0.0,
        0.06070303530356928,
        0.005119355556806626,
        0.0,
        0.004406700147686114,
        0.05269468885033301,
        0.042849847973921995,
        0.0,
        0.0,
        0.032421059446022,
        0.022127609998309573,
        0.028014359298335886,
        0.04348067828122339,
        0.01684885118041452,
        0.016609439995541767,
        -0.00699853231789559,
        0.00512916290526062,
        0.009907930613009885,
        0.01368412029114613,
        -0.0141577122243977,
        0.0,
        0.012191115102652314,
        0.0,
        0.04906672770474102,
        0.0,
        0.0,
        0.0053751242164112,
        0.03352214302933481,
        0.0,
        -0.08633222356245175,
        -0.006445665936411638,
        -0.006046307327839841,
        0.0395663930349302,
        0.0,
        0.0,
        0.0,
        0.0359738576131962,
        -0.03363525040929077,
        0.021879342361316216,
        0.028619420093347853,
        0.020377837192932836,
        0.0,
        0.0,
        -0.0041743580687059675,
        -0.029285386760256757,
        0.01813415477415924,
        0.028014359298335886,
        -0.01622788160189769,
        0.07227170989512513,
        0.004406700147686114,
        0.06085855130762102,
        -0.024874948367518104,
        0.017839702839037026,
        0.0,
        0.004051108745817032,
        0.020399380617440344,
        0.08473952016747768,
        0.07234371512570585,
        0.09208612891872078,
        0.017839702839037026,
        -0.046966686418425024,
        0.0,
        -0.005429855945987419,
        0.0,
        -0.04346547733956924,
        0.0006964732168656313,
        -0.0375462025384568,
        0.05410801238735545,
        0.027884588029066706,
        0.0,
        0.08084524295446285,
        0.049837943532513015,
        0.0,
        0.01813415477415924,
        0.0047456168796801215,
        0.017839702839037026,
        0.0005492302861552876,
        0.0,
        -0.006216879730818997,
        -0.016538913610001236,
        -0.006445665936411638,
        -0.0027115222262549176,
        0.024945280587209295,
        -0.02451119167320292,
        -0.05390076271854222,
        0.0,
        0.010087584401735506,
        0.0025699967105100464,
        0.009652053094828144,
        0.028014359298335886,
        -0.03024630790337935,
        0.0
      ],
      "bias": 0.7764214393058559
    }
  },
  "inference_contract": {
    "tokenization": "lowercase regex tokens + component tags",
    "vectorization": "hashed bag-of-words normalized to unit length",
    "postprocess": {
      "axes": "clamp to [0.0, 1.0]",
      "godai": "clamp to [0.8, 1.4]"
    },
    "outputs": {
      "axes": [
        "animation_density",
        "environment_depth",
        "fx_legibility",
        "material_storytelling",
        "silhouette_readability",
        "ui_authorship"
      ],
      "godai": [
        "mercy",
        "novelty",
        "pressure"
      ]
    }
  },
  "limitations": [
    "This is a lightweight steering model over textual and component metadata, not a generative image model.",
    "It bootstraps taste and direction from a curated pixel-art history curriculum plus knave component targets."
  ]
}
